<?xml version="1.0"?>
<opencv_storage>
<stage10>
  <maxWeakCount>5</maxWeakCount>
  <stageThreshold>-3.8788881897926331e-01</stageThreshold>
  <weakClassifiers>
    <_>
      <internalNodes>
        0 -1 6475 268685468 598018 268451873 -1048281067 16941198
        805830787 108632 361245289</internalNodes>
      <leafValues>
        -6.7914438247680664e-01 4.1274237632751465e-01</leafValues></_>
    <_>
      <internalNodes>
        0 -1 11363 -17828130 -84219137 2147208757 -361698595 -8599636
        -1102127746 1736201640 -1652032449</internalNodes>
      <leafValues>
        -4.6831807494163513e-01 6.7169803380966187e-01</leafValues></_>
    <_>
      <internalNodes>
        0 -1 10369 -142741550 -1511195271 1744565981 368836599 526907353
        -1704083471 -56207409 -187095306</internalNodes>
      <leafValues>
        -4.3199196457862854e-01 7.3552042245864868e-01</leafValues></_>
    <_>
      <internalNodes>
        0 -1 7154 -1827596202 -1139043072 132 -535195500 -1073700703
        -2013097976 -2122315131 -624736089</internalNodes>
      <leafValues>
        -5.7439821958541870e-01 6.2677890062332153e-01</leafValues></_>
    <_>
      <internalNodes>
        0 -1 2139 -336031824 1606213502 -1342177793 -1363165187 -132104
        -1342185473 -1074480034 -586435273</internalNodes>
      <leafValues>
        -4.6593901515007019e-01 7.9728060960769653e-01</leafValues></_></weakClassifiers></stage10>
</opencv_storage>
